Language model created by QuickLM on Fri Aug  8 03:46:50 EDT 2014
Copyright (c) 1996-2010 Carnegie Mellon University and Alexander I. Rudnicky

The model is in standard ARPA format, designed by Doug Paul while he was at MITRE.

The code that was used to produce this language model is available in Open Source.
Please visit http://www.speech.cs.cmu.edu/tools/ for more information

The (fixed) discount mass is 0.5. The backoffs are computed using the ratio method.
This model based on a corpus of 7 sentences and 11 words

\data\
ngram 1=11
ngram 2=16
ngram 3=9

\1-grams:
-0.8177 </s> -0.3010
-0.8177 <s> -0.2293
-1.6628 BACKWARD -0.2293
-1.6628 DOWN -0.2293
-1.6628 FORWARD -0.2293
-1.6628 LEFT -0.2293
-1.6628 RIGHT -0.2293
-1.6628 SLOW -0.2915
-1.6628 SPEED -0.2915
-1.6628 STOP -0.2293
-1.6628 UP -0.2293

\2-grams:
-1.1461 <s> BACKWARD 0.0000
-1.1461 <s> FORWARD 0.0000
-1.1461 <s> LEFT 0.0000
-1.1461 <s> RIGHT 0.0000
-1.1461 <s> SLOW 0.0000
-1.1461 <s> SPEED 0.0000
-1.1461 <s> STOP 0.0000
-0.3010 BACKWARD </s> -0.3010
-0.3010 DOWN </s> -0.3010
-0.3010 FORWARD </s> -0.3010
-0.3010 LEFT </s> -0.3010
-0.3010 RIGHT </s> -0.3010
-0.3010 SLOW DOWN 0.0000
-0.3010 SPEED UP 0.0000
-0.3010 STOP </s> -0.3010
-0.3010 UP </s> -0.3010

\3-grams:
-0.3010 <s> BACKWARD </s>
-0.3010 <s> FORWARD </s>
-0.3010 <s> LEFT </s>
-0.3010 <s> RIGHT </s>
-0.3010 <s> SLOW DOWN
-0.3010 <s> SPEED UP
-0.3010 <s> STOP </s>
-0.3010 SLOW DOWN </s>
-0.3010 SPEED UP </s>

\end\
